tree
version=v4
num_class=1
num_tree_per_iteration=1
label_index=0
max_feature_idx=5
objective=binary sigmoid:1
feature_names=Column_0 Column_1 Column_2 Column_3 Column_4 Column_5
feature_infos=[-4.9925269995261168:4.9450885987221067] [-4.9676264319377408:4.9639717897142859] [-4.9356523683054343:4.9972512558660362] [-4.8807677409292385:4.9982228142588401] [-4.9775311440034606:4.9505366668644601] [-4.9921859856293196:4.9698014928226293]
tree_sizes=1058 1072 1172 1067 1070 1065 1178 1166 1265 1173 1170 1175 1063 966 1063

Tree=0
num_leaves=9
num_cat=0
split_feature=0 1 1 0 1 0 0 0
split_gain=173.418 20.7181 12.7367 25.445 3.81504 0.16123 1.42109e-14 1.42109e-14
threshold=1.0000000180025095e-35 -2.4843695160925501 2.0764951871539616 2.6880901918455717 -0.82722057898835899 0.99291135848681178 -1.47296487182769 2.8600171336384039
decision_type=2 2 2 2 2 2 2 2
left_child=1 -1 5 -4 -3 -2 -6 -7
right_child=2 4 3 -5 6 7 -8 -9
leaf_value=0.057089097033311678 0.30411098438393552 -0.14192950379703306 -0.11605708568908837 0.33412298938915164 -0.2661171107151683 0.33412298938915164 -0.26611711071516836 0.33412298938915169
leaf_weight=6.4973999559879294 4.9979999661445644 7.2470999509096172 4.99799996614456 6.4973999559879303 16.493399888277057 11.495399922132494 7.4969999492168418 9.2462999373674375
leaf_count=26 20 29 20 26 66 46 30 37
internal_value=0.0400053 -0.186615 0.269668 0.138393 -0.237306 0.328295 -0.266117 0.334123
internal_weight=74.97 37.7349 37.2351 11.4954 31.2375 25.7397 23.9904 20.7417
internal_count=300 151 149 46 125 103 96 83
is_linear=0
shrinkage=1


Tree=1
num_leaves=9
num_cat=0
split_feature=0 1 1 0 0 2 1 0
split_gain=127.871 15.3566 9.62999 18.8815 3.12384 0.160215 0.155934 0.00112505
threshold=1.0000000180025095e-35 -2.4843695160925501 2.0764951871539616 2.6880901918455717 -0.67155419287529161 -3.7342200188350656 1.0000000180025095e-35 1.0775735636317039
decision_type=2 2 2 2 2 2 2 2
left_child=1 -1 6 -4 5 -3 7 -2
right_child=2 4 3 -5 -6 -7 -8 -9
leaf_value=0.014527715161393475 0.26001493142650217 -0.23835084651932958 -0.13305800040763485 0.25739486716999388 -0.14126041251656524 -0.26855238834609096 0.2286708173638019 0.25739486716999394
leaf_weight=6.4947065412998191 4.8815252780914369 4.9281098693609264 4.9832010269165021 6.3219107389450073 5.9106122106313732 19.954945430159569 5.1107879281043997 15.075325608253477
leaf_count=26 20 20 20 26 24 81 21 62
internal_value=0.000112568 -0.195078 0.200217 0.0852864 -0.239286 -0.262571 0.252049 0.258036
internal_weight=73.6611 37.2884 36.3728 11.3051 30.7937 24.8831 25.0676 19.9569
internal_count=300 151 149 46 125 101 103 82
is_linear=0
shrinkage=0.15


Tree=2
num_leaves=10
num_cat=0
split_feature=0 1 0 1 0 5 0 2 1
split_gain=97.2445 12.4968 26.7798 7.64185 14.4821 0.163726 0.0171812 0.000622106 0.000526419
threshold=1.0000000180025095e-35 -0.82722057898835899 -1.7907540416163594 2.0764951871539616 2.6880901918455717 2.940520636019226 -0.76865868417582861 -3.236623500418375 -0.031414584721886289
decision_type=2 2 2 2 2 2 2 2 2
left_child=1 2 -1 5 -5 8 7 -3 -2
right_child=3 6 -4 4 -6 -7 -8 -9 -10
leaf_value=-0.25244120303983247 0.23350238200856741 -0.239904230655412 0.17193571094815985 -0.11458429998850458 0.23302298030131793 0.20300869575336938 -0.24822309355781252 -0.23787942774175941 0.23534470050721049
leaf_weight=7.3061281442642212 14.242183998227121 4.6859392523765591 6.1720894128084165 4.9232223629951459 5.9630085825920105 4.8324023336172095 5.2571054100990322 12.579358041286467 4.6222300827503231
leaf_count=30 62 20 25 20 26 21 22 54 20
internal_value=0.000214889 -0.172348 -0.058106 0.179852 0.07582 0.227643 -0.240715 -0.238429 0.233954
internal_weight=70.5837 36.0006 13.4782 34.583 10.8862 23.6968 22.5224 17.2653 18.8644
internal_count=300 151 55 149 46 103 96 74 82
is_linear=0
shrinkage=0.15


Tree=3
num_leaves=9
num_cat=0
split_feature=0 1 0 1 0 1 0 2
split_gain=75.6442 10.4318 20.1203 6.7666 1.73551 0.170645 0.00814485 0.000298019
threshold=1.0000000180025095e-35 -0.82722057898835899 -1.6546640465276126 3.0855385191315379 1.0370764725323987 0.3051211836708872 -0.76865868417582861 -3.236623500418375
decision_type=2 2 2 2 2 2 2 2
left_child=1 2 -1 4 -2 -6 7 -3
right_child=3 6 -4 -5 5 -7 -8 -9
leaf_value=-0.2124059890620319 0.12810308107456131 -0.22072924596314841 0.16189636492539483 0.040883361563335024 0.2162606238546432 0.24993324852397955 -0.22664770540163398 -0.21927516439422232
leaf_weight=7.4908020794391632 5.4579325616359737 4.3547819554805782 5.682460665702818 7.5946915596723548 14.874890744686128 4.3843939304351798 4.9199261814355877 11.670344263315199
leaf_count=32 25 20 23 34 70 20 22 54
internal_value=0.000239012 -0.155531 -0.0509457 0.164717 0.202767 0.223926 -0.221309 -0.21967
internal_weight=66.4302 34.1183 13.1733 32.3119 24.7172 19.2593 20.9451 16.0251
internal_count=300 151 55 149 115 90 96 74
is_linear=0
shrinkage=0.15


Tree=4
num_leaves=9
num_cat=0
split_feature=0 1 1 0 0 4 1 0
split_gain=59.1153 8.93831 6.02555 11.8597 2.4139 0.191894 0.184211 0.00416357
threshold=1.0000000180025095e-35 -2.4843695160925501 2.0764951871539616 2.6880901918455717 -0.67155419287529161 -3.0499160822814013 -1.0000000180025095e-35 1.0775735636317039
decision_type=2 2 2 2 2 2 2 2
left_child=1 -1 6 -4 5 -3 7 -2
right_child=2 4 3 -5 -6 -7 -8 -9
leaf_value=0.018004507886254097 0.20883257198634975 -0.17583716250014236 -0.11228305537218887 0.21100964267587649 -0.09043811710935655 -0.21229327966450959 0.1691399210316889 0.20326667091054809
leaf_weight=6.266261667013171 4.0440073907375398 4.0527135729789832 4.9032379239797574 5.3266186565160751 5.1828017234802202 16.374374121427536 4.1286137998104122 11.988677322864531
leaf_count=26 20 20 20 26 24 81 21 62
internal_value=0.000135876 -0.142573 0.149818 0.0560533 -0.181864 -0.20506 0.197395 0.204671
internal_weight=62.2673 31.8762 30.3912 10.2299 25.6099 20.4271 20.1613 16.0327
internal_count=300 151 149 46 125 101 103 82
is_linear=0
shrinkage=0.15


Tree=5
num_leaves=9
num_cat=0
split_feature=0 1 0 1 0 1 0 4
split_gain=46.8271 8.6284 15.3917 5.47293 1.74786 0.182272 0.0133865 0.00016493
threshold=1.0000000180025095e-35 -0.82722057898835899 -1.7907540416163594 3.0855385191315379 1.0370764725323987 0.3051211836708872 -0.76865868417582861 -2.499790152594342
decision_type=2 2 2 2 2 2 2 2
left_child=1 2 -1 4 -2 -6 7 -3
right_child=3 6 -4 -5 5 -7 -8 -9
leaf_value=-0.19929873456175617 0.099545736617163247 -0.19638906336960693 0.13567598716674678 0.026051916787524148 0.19366188748794458 0.23136076282659152 -0.2051794504826833 -0.19521730260235162
leaf_weight=6.2628674507141113 4.8227003365755143 3.788259610533717 6.0851179957389849 7.0819492787122718 12.22118705511093 3.7776291370391837 4.3099373281002036 9.4320525825023633
leaf_count=30 25 21 25 34 70 20 22 53
internal_value=0.000228283 -0.130267 -0.0342224 0.139959 0.178702 0.202563 -0.19792 -0.195553
internal_weight=57.7817 29.8782 12.348 27.9035 20.8215 15.9988 17.5302 13.2203
internal_count=300 151 55 149 115 90 96 74
is_linear=0
shrinkage=0.15


Tree=6
num_leaves=10
num_cat=0
split_feature=0 1 0 1 0 0 0 4 5
split_gain=37.1613 7.49853 11.9281 5.33999 9.77147 0.0084518 0.00731882 9.09236e-05 3.86118e-05
threshold=1.0000000180025095e-35 -0.82722057898835899 -1.6546640465276126 1.0901829252586663 2.6880901918455717 1.0370764725323987 -0.76865868417582861 -2.499790152594342 1.1002491300550246
decision_type=2 2 2 2 2 2 2 2 2
left_child=1 2 -1 5 -5 -2 7 -3 -7
right_child=3 6 -4 4 -6 8 -8 -9 -10
leaf_value=-0.17230362306126673 0.19437760461508341 -0.18811805408476151 0.13025657418877817 -0.083928526523759525 0.19547822577079074 0.18573861313867138 -0.19496348716248635 -0.18719856281499628 0.18631251703032051
leaf_weight=6.2785505354404449 3.5215775072574642 3.3925320357084265 5.4999951869249362 5.8379935026168805 5.4409134685993195 6.9914460927247983 3.8884049803018561 8.4383340328931791 4.2357153445482254
leaf_count=32 20 21 23 26 31 45 22 53 27
internal_value=8.45581e-05 -0.121513 -0.0310231 0.128551 0.0508565 0.187966 -0.189318 -0.187462 0.185955
internal_weight=53.5255 27.4978 11.7785 26.0276 11.2789 14.7487 15.7193 11.8309 11.2272
internal_count=300 151 55 149 57 92 96 74 72
is_linear=0
shrinkage=0.15


Tree=7
num_leaves=10
num_cat=0
split_feature=0 1 0 1 1 0 0 1 5
split_gain=30.2004 7.40323 11.4175 6.21817 0.958753 0.674004 0.0779356 0.0473529 0.000136202
threshold=-0.34279824285910271 0.3051211836708872 1.780742648808862 -2.4843695160925501 3.4227507650427014 -1.3500462510108406 0.99291135848681178 -0.82722057898835899 2.5871968249701514
decision_type=2 2 2 2 2 2 2 2 2
left_child=3 6 -3 -1 -4 7 -2 -5 -8
right_child=1 2 4 5 -6 -7 8 -9 -10
leaf_value=0.012580917140047547 0.20574027763586952 -0.13010342655693258 0.21872056526138975 -0.20157130623878602 0.10540422302744189 -0.11788971133167436 0.17974296407031201 -0.18106335445087604 0.18097186568228152
leaf_weight=5.5695495754480389 3.6327611356973675 5.6680340021848661 3.1727738231420517 3.4334000647068068 3.5706189423799515 4.2825262695550892 7.1791498363018018 9.6629798114299756 2.8288253843784332
leaf_count=25 21 28 20 21 20 25 52 68 20
internal_value=0.000125327 0.110648 0.0268203 -0.125345 0.15872 -0.169548 0.186921 -0.18644 0.18009
internal_weight=49.0006 26.0522 12.4114 22.9485 6.74339 17.3789 13.6407 13.0964 10.008
internal_count=300 161 68 139 40 114 93 89 72
is_linear=0
shrinkage=0.15


Tree=8
num_leaves=11
num_cat=0
split_feature=0 1 0 0 0 5 1 4 1 1
split_gain=24.5833 8.96453 11.5975 2.01232 1.80389 0.598993 0.268642 0.242624 0.226094 0.0752148
threshold=-1.0311354477533732 0.15982121787344331 1.780742648808862 0.36837366601219129 -1.7907540416163594 3.0490990305790731 -1.044931014690835 -1.6055446665170752 3.5560375303916421 -0.64070234562480788
decision_type=2 2 2 2 2 2 2 2 2 2
left_child=4 5 3 -3 7 6 -2 -1 -4 -9
right_child=1 2 8 -5 -6 -7 -8 9 -10 -11
leaf_value=-0.14472823015872094 0.19277862037817936 -0.20822431008129538 0.17384149613350994 -0.05209543642782568 -0.055050080080325053 0.10976177382439899 0.13827462199941182 -0.20450619786031998 0.11679309148730423 -0.17575648907463745
leaf_weight=4.3453581333160409 8.8730287104845029 3.7436888962984067 3.2453283071517944 3.686478853225708 3.7555686235427848 3.5445760935544959 2.6401027217507389 3.6725253909826279 3.015474408864975 4.6271858885884285
leaf_count=33 62 24 22 17 21 24 21 21 18 37
internal_value=0.000209958 0.0838102 -0.00403306 -0.130761 -0.146333 0.16368 0.18028 -0.173444 0.146365 -0.188478
internal_weight=45.1493 28.7487 13.691 7.43017 16.4006 15.0577 11.5131 12.6451 6.2608 8.29971
internal_count=300 188 81 41 112 107 83 91 40 58
is_linear=0
shrinkage=0.15


Tree=9
num_leaves=10
num_cat=0
split_feature=0 1 0 1 3 0 4 2 1
split_gain=19.9541 8.57419 8.68338 5.10358 0.102566 0.155287 0.073889 0.186019 0.0999989
threshold=0.47920131556775886 -0.82722057898835899 -1.7907540416163594 3.0855385191315379 -2.9129305956518086 -0.67155419287529161 -0.91507274135933103 -0.42523561610289379 -0.031414584721886289
decision_type=2 2 2 2 2 2 2 2 2
left_child=1 2 -1 6 -3 -6 8 -8 -2
right_child=3 4 -4 -5 5 -7 7 -9 -10
leaf_value=-0.15810711987495485 0.1716711421249025 -0.15207497963505159 0.10980443268888096 0.0046346982053603446 -0.17257859172492016 -0.21630165412286231 0.18327351901421812 0.13034124988471574 0.21338943207722097
leaf_weight=4.4993082135915756 3.0732454285025597 2.9489044696092597 6.8908444195985812 5.799385353922843 6.9118087515234938 2.4846723526716223 4.4552234634757051 2.2473559007048607 2.2314585670828828
leaf_count=30 28 24 35 33 61 16 38 19 16
internal_value=0.000159653 -0.0898842 0.00397471 0.120184 -0.176481 -0.18414 0.175994 0.165525 0.18922
internal_weight=41.5422 23.7355 11.3902 17.8067 12.3454 9.39648 12.0073 6.70258 5.3047
internal_count=300 166 65 134 101 77 101 57 44
is_linear=0
shrinkage=0.15


Tree=10
num_leaves=10
num_cat=0
split_feature=0 1 0 1 1 4 0 1 0
split_gain=16.9763 7.79134 8.78692 4.44007 2.95268 0.303067 0.241979 0.238617 0.120082
threshold=-0.83286736846251086 0.15982121787344331 2.6880901918455717 3.1538802337299106 -2.1574488764456152 -2.7000155793394964 -1.8910664594565993 -0.64070234562480788 0.47920131556775886
decision_type=2 2 2 2 2 2 2 2 2
left_child=4 7 3 -3 -1 -6 -7 8 -2
right_child=1 2 -4 -5 5 6 -8 -9 -10
leaf_value=-0.025140981319001377 0.20411516879096095 0.0059144141809052532 0.17762384027515049 -0.21685846181457744 -0.12787287861315713 -0.16874594614056082 -0.22832281298726151 0.12465387739229092 0.16806531744232614
leaf_weight=4.561686009168624 3.2311715930700284 4.547468423843382 4.0476538315415374 3.6118898019194603 2.7757860869169226 5.3241266235709181 2.154725082218647 2.0863104462623623 5.8303050994873047
leaf_count=24 20 27 33 21 25 54 15 20 61
internal_value=5.30706e-05 0.0797291 -0.00306491 -0.0927001 -0.125539 -0.170201 -0.185911 0.17039 0.18092
internal_weight=38.1711 23.3548 12.207 8.15936 14.8163 10.2546 7.47885 11.1478 9.06148
internal_count=300 182 81 48 118 94 69 101 81
is_linear=0
shrinkage=0.15


Tree=11
num_leaves=10
num_cat=0
split_feature=0 1 0 1 0 5 1 0 4
split_gain=14.0493 5.10095 7.62876 3.32042 2.91947 0.771828 0.0621108 0.0422174 7.4078e-05
threshold=-1.6546640465276126 0.15982121787344331 2.6880901918455717 3.1538802337299106 -0.59794266354716441 -2.8938791937007866 -1.2375402302883824 0.60623784453889373 -0.98655800265412619
decision_type=2 2 2 2 2 2 2 2 2
left_child=5 4 3 -3 -2 -1 -7 -6 -8
right_child=1 2 -4 -5 7 6 8 -9 -10
leaf_value=-0.08683072859869416 0.018278188567946236 -0.011582365802154885 0.17319803829218736 -0.20411517720882638 0.18823566815224185 -0.19496296102629571 -0.16680020972025775 0.16561194943568625 -0.1655260225161643
leaf_weight=3.0167308673262596 4.00167641788721 5.0325657576322538 3.5658928453922263 3.3617077469825745 2.6050013750791567 2.7921502590179443 1.8061702847480772 6.4534759372472763 2.3785609826445562
leaf_count=28 20 32 33 22 20 21 20 76 28
internal_value=0.000117588 0.0601675 -0.0106068 -0.0886872 0.124981 -0.150225 -0.177637 0.172118 -0.166076
internal_weight=35.0139 25.0203 11.9602 8.39427 13.0602 9.99361 6.97688 9.05848 4.18473
internal_count=300 203 87 54 116 97 69 96 48
is_linear=0
shrinkage=0.15


Tree=12
num_leaves=9
num_cat=0
split_feature=0 1 1 0 1 2 3 1
split_gain=12.0719 9.09183 3.6447 3.34357 6.07126 0.605652 0.0953982 0.14115
threshold=0.47920131556775886 -3.7541524899784542 3.0855385191315379 -0.83286736846251086 0.89253201199652088 -2.370576537868486 -1.0980791309365361 0.3051211836708872
decision_type=2 2 2 2 2 2 2 2
left_child=1 -1 6 5 -5 -3 -2 -8
right_child=2 3 -4 4 -6 -7 7 -9
leaf_value=0.19108972777232811 0.14690528197170613 -0.11031499142341533 0.003815083167085787 0.11658747962817845 -0.19893428707283126 -0.19045938198926202 0.16325722390936201 0.21703525989250688
leaf_weight=2.4510506913065901 3.3837654590606681 2.9321283400058764 4.8216723874211302 3.0662322789430645 2.4835583791136742 7.6747550517320633 3.7085291892290106 1.5600817427039144
leaf_count=14 39 30 33 22 22 78 50 12
internal_value=0.000191018 -0.0781072 0.108321 -0.118946 -0.02461 -0.168305 0.166559 0.179181
internal_weight=32.0818 18.6077 13.474 16.1567 5.54979 10.6069 8.65238 5.26861
internal_count=300 166 134 152 44 108 101 62
is_linear=0
shrinkage=0.15


Tree=13
num_leaves=8
num_cat=0
split_feature=0 1 1 0 4 4 1
split_gain=9.69304 7.18941 3.02989 2.26199 0.459809 0.175825 0.0718426
threshold=0.36837366601219129 -3.2890990691318645 2.9146901545501658 -0.83286736846251086 -2.2129653549275345 2.8954745058651912 0.53455642877817955
decision_type=2 2 2 2 2 2 2
left_child=1 -1 5 4 -3 6 -2
right_child=2 3 -4 -5 -6 -7 -8
leaf_value=0.1240773344795323 0.1613502688630917 -0.1178843020631819 0.013670701924618243 -0.037865084055700042 -0.19188371442094407 0.11428268061752724 0.19813401409909312
leaf_weight=3.2434686720371273 4.2207929417490941 2.7375658676028269 5.5840732157230377 4.4551523737609378 6.0973775610327721 1.5031378306448457 1.6663333438336847
leaf_count=20 65 35 37 39 69 19 16
internal_value=1.17576e-05 -0.0761455 0.0970612 -0.12501 -0.168955 0.160071 0.171762
internal_weight=29.5079 16.5336 12.9743 13.2901 8.83494 7.39026 5.88713
internal_count=300 163 137 143 104 100 81
is_linear=0
shrinkage=0.15


Tree=14
num_leaves=9
num_cat=0
split_feature=0 1 0 1 1 2 1 4
split_gain=8.15674 5.84613 3.98952 5.66919 1.19518 0.73365 0.11947 4.4945e-05
threshold=1.5819552652167148 -3.7541524899784542 -0.83286736846251086 0.15982121787344331 3.4227507650427014 -2.7995538031584539 2.3705002388465877 1.6308525744139317
decision_type=2 2 2 2 2 2 2 2
left_child=1 -1 5 -4 6 -3 7 -2
right_child=4 2 3 -5 -6 -7 -8 -9
leaf_value=0.15698534033316955 0.15917485676012399 -0.082843401367765107 0.14632484439001092 -0.10596431661134119 0.050210941738382017 -0.1824387685050651 0.21358858556134738 0.16028564260061645
leaf_weight=2.6209987364709439 2.6969607584178443 2.2637287229299599 3.2115620709955639 5.329998105764389 2.7947870939970016 6.2831017300486565 1.2051829434931276 1.1774186380207536
leaf_count=20 50 28 31 40 21 80 10 20
internal_value=-5.3016e-05 -0.0516107 -0.083605 -0.0111055 0.128995 -0.15606 0.172343 0.159512
internal_weight=27.5837 19.7094 17.0884 8.54156 7.87435 8.54683 5.07956 3.87438
internal_count=300 199 179 71 101 108 80 70
is_linear=0
shrinkage=0.15


end of trees

feature_importances:
Column_0=55
Column_1=49
Column_4=10
Column_2=6
Column_5=5
Column_3=2

parameters:
[boosting: gbdt]
[objective: binary]
[metric: binary_logloss]
[tree_learner: serial]
[device_type: cpu]
[data_sample_strategy: bagging]
[data: ]
[valid: ]
[num_iterations: 15]
[learning_rate: 0.15]
[num_leaves: 16]
[num_threads: 0]
[seed: 51]
[deterministic: 1]
[force_col_wise: 0]
[force_row_wise: 0]
[histogram_pool_size: -1]
[max_depth: 4]
[min_data_in_leaf: 20]
[min_sum_hessian_in_leaf: 0.001]
[bagging_fraction: 1]
[pos_bagging_fraction: 1]
[neg_bagging_fraction: 1]
[bagging_freq: 0]
[bagging_seed: 31600]
[bagging_by_query: 0]
[feature_fraction: 1]
[feature_fraction_bynode: 1]
[feature_fraction_seed: 17250]
[extra_trees: 0]
[extra_seed: 15452]
[early_stopping_round: 0]
[early_stopping_min_delta: 0]
[first_metric_only: 0]
[max_delta_step: 0]
[lambda_l1: 0]
[lambda_l2: 0]
[linear_lambda: 0]
[min_gain_to_split: 0]
[drop_rate: 0.1]
[max_drop: 50]
[skip_drop: 0.5]
[xgboost_dart_mode: 0]
[uniform_drop: 0]
[drop_seed: 14807]
[top_rate: 0.2]
[other_rate: 0.1]
[min_data_per_group: 100]
[max_cat_threshold: 32]
[cat_l2: 10]
[cat_smooth: 10]
[max_cat_to_onehot: 4]
[top_k: 20]
[monotone_constraints: ]
[monotone_constraints_method: basic]
[monotone_penalty: 0]
[feature_contri: ]
[forcedsplits_filename: ]
[refit_decay_rate: 0.9]
[cegb_tradeoff: 1]
[cegb_penalty_split: 0]
[cegb_penalty_feature_lazy: ]
[cegb_penalty_feature_coupled: ]
[path_smooth: 0]
[interaction_constraints: ]
[verbosity: -1]
[saved_feature_importance_type: 0]
[use_quantized_grad: 0]
[num_grad_quant_bins: 4]
[quant_train_renew_leaf: 0]
[stochastic_rounding: 1]
[linear_tree: 0]
[max_bin: 255]
[max_bin_by_feature: ]
[min_data_in_bin: 3]
[bin_construct_sample_cnt: 200000]
[data_random_seed: 205]
[is_enable_sparse: 1]
[enable_bundle: 1]
[use_missing: 1]
[zero_as_missing: 0]
[feature_pre_filter: 1]
[pre_partition: 0]
[two_round: 0]
[header: 0]
[label_column: ]
[weight_column: ]
[group_column: ]
[ignore_column: ]
[categorical_feature: ]
[forcedbins_filename: ]
[precise_float_parser: 0]
[parser_config_file: ]
[objective_seed: 10610]
[num_class: 1]
[is_unbalance: 0]
[scale_pos_weight: 1]
[sigmoid: 1]
[boost_from_average: 1]
[reg_sqrt: 0]
[alpha: 0.9]
[fair_c: 1]
[poisson_max_delta_step: 0.7]
[tweedie_variance_power: 1.5]
[lambdarank_truncation_level: 30]
[lambdarank_norm: 1]
[label_gain: ]
[lambdarank_position_bias_regularization: 0]
[eval_at: ]
[multi_error_top_k: 1]
[auc_mu_weights: ]
[num_machines: 1]
[local_listen_port: 12400]
[time_out: 120]
[machine_list_filename: ]
[machines: ]
[gpu_platform_id: -1]
[gpu_device_id: -1]
[gpu_use_dp: 0]
[num_gpu: 1]

end of parameters

pandas_categorical:null
